<?xml version="1.0"?>
<opencv_storage>
<stage3>
  <maxWeakCount>63</maxWeakCount>
  <stageThreshold>-5.5653721094131470e-01</stageThreshold>
  <weakClassifiers>
    <_>
      <internalNodes>
        0 -1 64542 -8.2191191613674164e-03</internalNodes>
      <leafValues>
        -2.5541126728057861e-01 3.8841634988784790e-01</leafValues></_>
    <_>
      <internalNodes>
        0 -1 50324 -1.5282450243830681e-02</internalNodes>
      <leafValues>
        2.8632673621177673e-01 -7.8603602945804596e-02</leafValues></_>
    <_>
      <internalNodes>
        0 -1 54390 1.0345040820538998e-02</internalNodes>
      <leafValues>
        -6.6345863044261932e-02 3.6557251214981079e-01</leafValues></_>
    <_>
      <internalNodes>
        0 -1 57592 -5.5050211958587170e-03</internalNodes>
      <leafValues>
        -5.6364601850509644e-01 2.4853657931089401e-02</leafValues></_>
    <_>
      <internalNodes>
        0 -1 61282 1.2759577948600054e-03</internalNodes>
      <leafValues>
        -1.4523804187774658e-01 1.5469430387020111e-01</leafValues></_>
    <_>
      <internalNodes>
        0 -1 54361 -9.0831454144790769e-04</internalNodes>
      <leafValues>
        1.6041885316371918e-01 -1.5560016036033630e-01</leafValues></_>
    <_>
      <internalNodes>
        0 -1 48264 1.2099253013730049e-02</internalNodes>
      <leafValues>
        -7.1032576262950897e-02 3.4418934583663940e-01</leafValues></_>
    <_>
      <internalNodes>
        0 -1 61254 -1.0269803926348686e-02</internalNodes>
      <leafValues>
        -6.7342233657836914e-01 5.5608790367841721e-02</leafValues></_>
    <_>
      <internalNodes>
        0 -1 12180 4.0639680810272694e-04</internalNodes>
      <leafValues>
        -1.7329779267311096e-01 1.2629829347133636e-01</leafValues></_>
    <_>
      <internalNodes>
        0 -1 38239 -7.1233981288969517e-03</internalNodes>
      <leafValues>
        4.5617520809173584e-01 -4.4499423354864120e-02</leafValues></_>
    <_>
      <internalNodes>
        0 -1 58510 -6.1363638378679752e-03</internalNodes>
      <leafValues>
        -3.7366235256195068e-01 6.1652939766645432e-02</leafValues></_>
    <_>
      <internalNodes>
        0 -1 63980 3.7193447351455688e-02</internalNodes>
      <leafValues>
        6.4250834286212921e-02 -3.1316140294075012e-01</leafValues></_>
    <_>
      <internalNodes>
        0 -1 58480 1.4131596311926842e-02</internalNodes>
      <leafValues>
        -4.6328384429216385e-02 5.0512844324111938e-01</leafValues></_>
    <_>
      <internalNodes>
        0 -1 61660 1.3190081343054771e-02</internalNodes>
      <leafValues>
        3.7275489419698715e-02 -6.8641990423202515e-01</leafValues></_>
    <_>
      <internalNodes>
        0 -1 33624 -6.0230167582631111e-04</internalNodes>
      <leafValues>
        1.6165921092033386e-01 -1.2606045603752136e-01</leafValues></_>
    <_>
      <internalNodes>
        0 -1 21108 1.5551331453025341e-03</internalNodes>
      <leafValues>
        -1.0139656811952591e-01 2.1931073069572449e-01</leafValues></_>
    <_>
      <internalNodes>
        0 -1 32941 -3.6038914695382118e-03</internalNodes>
      <leafValues>
        2.3977300524711609e-01 -8.7695278227329254e-02</leafValues></_>
    <_>
      <internalNodes>
        0 -1 14480 -2.2841347381472588e-03</internalNodes>
      <leafValues>
        2.2825992107391357e-01 -9.8153397440910339e-02</leafValues></_>
    <_>
      <internalNodes>
        0 -1 33934 2.8666506987065077e-03</internalNodes>
      <leafValues>
        6.1146747320890427e-02 -3.6148723959922791e-01</leafValues></_>
    <_>
      <internalNodes>
        0 -1 34050 -3.8612522184848785e-03</internalNodes>
      <leafValues>
        -4.1151019930839539e-01 5.5874265730381012e-02</leafValues></_>
    <_>
      <internalNodes>
        0 -1 69187 5.6299227289855480e-03</internalNodes>
      <leafValues>
        6.7181490361690521e-02 -2.8729164600372314e-01</leafValues></_>
    <_>
      <internalNodes>
        0 -1 58237 5.2329357713460922e-03</internalNodes>
      <leafValues>
        5.3441442549228668e-02 -3.9692702889442444e-01</leafValues></_>
    <_>
      <internalNodes>
        0 -1 13307 4.5175366103649139e-03</internalNodes>
      <leafValues>
        3.4562610089778900e-02 -5.0315988063812256e-01</leafValues></_>
    <_>
      <internalNodes>
        0 -1 24128 -8.1239983439445496e-02</internalNodes>
      <leafValues>
        8.6633533239364624e-01 -2.3766510188579559e-02</leafValues></_>
    <_>
      <internalNodes>
        0 -1 56702 2.5892779231071472e-02</internalNodes>
      <leafValues>
        4.8356302082538605e-02 -4.6773442625999451e-01</leafValues></_>
    <_>
      <internalNodes>
        0 -1 54043 9.1070454800501466e-04</internalNodes>
      <leafValues>
        -8.6026452481746674e-02 2.2839507460594177e-01</leafValues></_>
    <_>
      <internalNodes>
        0 -1 57844 1.7915467033162713e-03</internalNodes>
      <leafValues>
        -1.1471847444772720e-01 1.7479918897151947e-01</leafValues></_>
    <_>
      <internalNodes>
        0 -1 77234 1.0814303532242775e-03</internalNodes>
      <leafValues>
        -7.8236274421215057e-02 2.6100906729698181e-01</leafValues></_>
    <_>
      <internalNodes>
        0 -1 70461 9.5978304743766785e-03</internalNodes>
      <leafValues>
        7.5842171907424927e-02 -2.7159398794174194e-01</leafValues></_>
    <_>
      <internalNodes>
        0 -1 60266 1.1144526302814484e-02</internalNodes>
      <leafValues>
        3.8512337952852249e-02 -5.7014709711074829e-01</leafValues></_>
    <_>
      <internalNodes>
        0 -1 71174 -4.5971181243658066e-03</internalNodes>
      <leafValues>
        -4.4243451952934265e-01 4.0833130478858948e-02</leafValues></_>
    <_>
      <internalNodes>
        0 -1 45039 7.3262630030512810e-03</internalNodes>
      <leafValues>
        6.1829540878534317e-02 -3.0262356996536255e-01</leafValues></_>
    <_>
      <internalNodes>
        0 -1 62622 -3.5357296466827393e-02</internalNodes>
      <leafValues>
        2.3303310573101044e-01 -8.3762206137180328e-02</leafValues></_>
    <_>
      <internalNodes>
        0 -1 75074 -2.0322783384472132e-03</internalNodes>
      <leafValues>
        2.0579074323177338e-01 -1.0074692964553833e-01</leafValues></_>
    <_>
      <internalNodes>
        0 -1 75088 3.9810291491448879e-03</internalNodes>
      <leafValues>
        -9.9272266030311584e-02 2.5263196229934692e-01</leafValues></_>
    <_>
      <internalNodes>
        0 -1 73675 6.4642310142517090e-02</internalNodes>
      <leafValues>
        -3.6379225552082062e-02 5.1976978778839111e-01</leafValues></_>
    <_>
      <internalNodes>
        0 -1 39504 -2.2020437754690647e-03</internalNodes>
      <leafValues>
        2.3102314770221710e-01 -8.6256779730319977e-02</leafValues></_>
    <_>
      <internalNodes>
        0 -1 60795 -9.1325622051954269e-03</internalNodes>
      <leafValues>
        -4.9001708626747131e-01 4.3783199042081833e-02</leafValues></_>
    <_>
      <internalNodes>
        0 -1 37071 -3.1961505301296711e-03</internalNodes>
      <leafValues>
        -4.6916636824607849e-01 3.8397718220949173e-02</leafValues></_>
    <_>
      <internalNodes>
        0 -1 39631 1.3731147628277540e-03</internalNodes>
      <leafValues>
        -1.0070158541202545e-01 1.8989720940589905e-01</leafValues></_>
    <_>
      <internalNodes>
        0 -1 67450 -6.4196600578725338e-04</internalNodes>
      <leafValues>
        1.7259259521961212e-01 -1.1962687224149704e-01</leafValues></_>
    <_>
      <internalNodes>
        0 -1 60361 -1.6649620607495308e-02</internalNodes>
      <leafValues>
        3.3657914400100708e-01 -5.7790838181972504e-02</leafValues></_>
    <_>
      <internalNodes>
        0 -1 6917 -2.6841436047106981e-03</internalNodes>
      <leafValues>
        -3.1147488951683044e-01 6.2555268406867981e-02</leafValues></_>
    <_>
      <internalNodes>
        0 -1 78070 2.3535951040685177e-03</internalNodes>
      <leafValues>
        5.3759738802909851e-02 -3.7362316250801086e-01</leafValues></_>
    <_>
      <internalNodes>
        0 -1 65699 -4.9533462151885033e-03</internalNodes>
      <leafValues>
        2.2134450078010559e-01 -8.2487933337688446e-02</leafValues></_>
    <_>
      <internalNodes>
        0 -1 62352 4.1318014264106750e-03</internalNodes>
      <leafValues>
        -8.8950723409652710e-02 2.1331724524497986e-01</leafValues></_>
    <_>
      <internalNodes>
        0 -1 49893 1.5883129090070724e-02</internalNodes>
      <leafValues>
        3.4786090254783630e-02 -5.7640564441680908e-01</leafValues></_>
    <_>
      <internalNodes>
        0 -1 73475 -3.1298028770834208e-03</internalNodes>
      <leafValues>
        -4.5292559266090393e-01 3.7516202777624130e-02</leafValues></_>
    <_>
      <internalNodes>
        0 -1 20002 5.2669849246740341e-03</internalNodes>
      <leafValues>
        -8.4335014224052429e-02 2.1822474896907806e-01</leafValues></_>
    <_>
      <internalNodes>
        0 -1 6696 -2.2160150110721588e-03</internalNodes>
      <leafValues>
        1.7358209192752838e-01 -1.2031222134828568e-01</leafValues></_>
    <_>
      <internalNodes>
        0 -1 52935 9.0136379003524780e-03</internalNodes>
      <leafValues>
        2.4775126948952675e-02 -8.5666000843048096e-01</leafValues></_>
    <_>
      <internalNodes>
        0 -1 28386 5.1814839243888855e-02</internalNodes>
      <leafValues>
        -3.7831887602806091e-02 5.9067672491073608e-01</leafValues></_>
    <_>
      <internalNodes>
        0 -1 9984 3.1108062714338303e-02</internalNodes>
      <leafValues>
        -8.8935904204845428e-02 2.0458242297172546e-01</leafValues></_>
    <_>
      <internalNodes>
        0 -1 71142 4.2976322583854198e-03</internalNodes>
      <leafValues>
        4.4354464858770370e-02 -4.1985106468200684e-01</leafValues></_>
    <_>
      <internalNodes>
        0 -1 57691 6.6300560720264912e-03</internalNodes>
      <leafValues>
        -6.3886418938636780e-02 2.9150432348251343e-01</leafValues></_>
    <_>
      <internalNodes>
        0 -1 2 1.8651606515049934e-03</internalNodes>
      <leafValues>
        7.3537200689315796e-02 -2.5197884440422058e-01</leafValues></_>
    <_>
      <internalNodes>
        0 -1 64933 -3.3927243202924728e-03</internalNodes>
      <leafValues>
        2.2106538712978363e-01 -8.5222482681274414e-02</leafValues></_>
    <_>
      <internalNodes>
        0 -1 67956 -2.6865350082516670e-03</internalNodes>
      <leafValues>
        -3.7917518615722656e-01 5.2159432321786880e-02</leafValues></_>
    <_>
      <internalNodes>
        0 -1 63399 -3.8263364695012569e-03</internalNodes>
      <leafValues>
        1.8223379552364349e-01 -1.0840245336294174e-01</leafValues></_>
    <_>
      <internalNodes>
        0 -1 59450 6.4097344875335693e-02</internalNodes>
      <leafValues>
        3.8523003458976746e-02 -5.3027081489562988e-01</leafValues></_>
    <_>
      <internalNodes>
        0 -1 68101 -1.4318630564957857e-03</internalNodes>
      <leafValues>
        2.3829741775989532e-01 -7.4768424034118652e-02</leafValues></_>
    <_>
      <internalNodes>
        0 -1 67958 5.2474718540906906e-03</internalNodes>
      <leafValues>
        3.5182632505893707e-02 -5.4801321029663086e-01</leafValues></_>
    <_>
      <internalNodes>
        0 -1 65328 -3.2884355168789625e-03</internalNodes>
      <leafValues>
        -5.2468556165695190e-01 3.1613413244485855e-02</leafValues></_></weakClassifiers></stage3>
</opencv_storage>
