<?xml version="1.0"?>
<opencv_storage>
<stage1>
  <maxWeakCount>61</maxWeakCount>
  <stageThreshold>-8.0723279714584351e-01</stageThreshold>
  <weakClassifiers>
    <_>
      <internalNodes>
        0 -1 61284 4.4480250217020512e-03</internalNodes>
      <leafValues>
        1.9000580906867981e-01 5.8529108762741089e-01</leafValues></_>
    <_>
      <internalNodes>
        0 -1 21730 7.0130396634340286e-03</internalNodes>
      <leafValues>
        -1.0670119524002075e-01 3.4121307730674744e-01</leafValues></_>
    <_>
      <internalNodes>
        0 -1 59195 -8.6548988474532962e-04</internalNodes>
      <leafValues>
        1.7392162978649139e-01 -2.1345990896224976e-01</leafValues></_>
    <_>
      <internalNodes>
        0 -1 12180 9.3275302788242698e-04</internalNodes>
      <leafValues>
        -1.7038930952548981e-01 2.0911061763763428e-01</leafValues></_>
    <_>
      <internalNodes>
        0 -1 13610 -7.5103546259924769e-04</internalNodes>
      <leafValues>
        2.2948022186756134e-01 -1.2962122261524200e-01</leafValues></_>
    <_>
      <internalNodes>
        0 -1 70447 -2.7022166177630424e-03</internalNodes>
      <leafValues>
        2.4399419128894806e-01 -1.4390002191066742e-01</leafValues></_>
    <_>
      <internalNodes>
        0 -1 54488 -7.0171840488910675e-03</internalNodes>
      <leafValues>
        3.9339521527290344e-01 -8.4668993949890137e-02</leafValues></_>
    <_>
      <internalNodes>
        0 -1 44978 3.2389834523200989e-03</internalNodes>
      <leafValues>
        -1.1959813535213470e-01 2.9801264405250549e-01</leafValues></_>
    <_>
      <internalNodes>
        0 -1 61036 -7.3344605043530464e-03</internalNodes>
      <leafValues>
        -5.5365413427352905e-01 6.3679106533527374e-02</leafValues></_>
    <_>
      <internalNodes>
        0 -1 34050 5.7846615090966225e-03</internalNodes>
      <leafValues>
        3.8393475115299225e-02 -6.8892300128936768e-01</leafValues></_>
    <_>
      <internalNodes>
        0 -1 53945 -1.4229216612875462e-03</internalNodes>
      <leafValues>
        2.0556683838367462e-01 -1.3949616253376007e-01</leafValues></_>
    <_>
      <internalNodes>
        0 -1 22625 9.9218748509883881e-03</internalNodes>
      <leafValues>
        -1.2388288974761963e-01 2.1366620063781738e-01</leafValues></_>
    <_>
      <internalNodes>
        0 -1 52647 -5.9947522822767496e-04</internalNodes>
      <leafValues>
        2.0440199971199036e-01 -1.3502979278564453e-01</leafValues></_>
    <_>
      <internalNodes>
        0 -1 48259 -1.3708835467696190e-03</internalNodes>
      <leafValues>
        2.2269061207771301e-01 -1.2714189291000366e-01</leafValues></_>
    <_>
      <internalNodes>
        0 -1 67958 5.5772201158106327e-03</internalNodes>
      <leafValues>
        5.1938582211732864e-02 -6.2962591648101807e-01</leafValues></_>
    <_>
      <internalNodes>
        0 -1 73181 4.4546611607074738e-03</internalNodes>
      <leafValues>
        -1.2266157567501068e-01 2.2102043032646179e-01</leafValues></_>
    <_>
      <internalNodes>
        0 -1 12254 1.4979336410760880e-03</internalNodes>
      <leafValues>
        -1.1258550733327866e-01 2.3174574971199036e-01</leafValues></_>
    <_>
      <internalNodes>
        0 -1 65437 4.8200101591646671e-03</internalNodes>
      <leafValues>
        3.8451310247182846e-02 -7.5183486938476562e-01</leafValues></_>
    <_>
      <internalNodes>
        0 -1 77166 -2.8401913004927337e-04</internalNodes>
      <leafValues>
        1.8413232266902924e-01 -1.3331837952136993e-01</leafValues></_>
    <_>
      <internalNodes>
        0 -1 21104 4.4553633779287338e-03</internalNodes>
      <leafValues>
        3.5137604922056198e-02 -7.1583658456802368e-01</leafValues></_>
    <_>
      <internalNodes>
        0 -1 27818 -5.0554992631077766e-03</internalNodes>
      <leafValues>
        3.4013649821281433e-01 -8.1698864698410034e-02</leafValues></_>
    <_>
      <internalNodes>
        0 -1 73080 -8.1958537921309471e-03</internalNodes>
      <leafValues>
        -6.1256533861160278e-01 3.7987735122442245e-02</leafValues></_>
    <_>
      <internalNodes>
        0 -1 65063 -5.9812190011143684e-04</internalNodes>
      <leafValues>
        2.1391007304191589e-01 -1.3183100521564484e-01</leafValues></_>
    <_>
      <internalNodes>
        0 -1 13621 -7.8540658578276634e-03</internalNodes>
      <leafValues>
        4.7341629862785339e-01 -5.5845629423856735e-02</leafValues></_>
    <_>
      <internalNodes>
        0 -1 53242 -8.3555950550362468e-04</internalNodes>
      <leafValues>
        2.0416857302188873e-01 -1.2228634953498840e-01</leafValues></_>
    <_>
      <internalNodes>
        0 -1 60589 -2.7737390249967575e-02</internalNodes>
      <leafValues>
        -5.8644133806228638e-01 5.0053156912326813e-02</leafValues></_>
    <_>
      <internalNodes>
        0 -1 38938 -7.3897587135434151e-03</internalNodes>
      <leafValues>
        -7.3352074623107910e-01 2.4971846491098404e-02</leafValues></_>
    <_>
      <internalNodes>
        0 -1 67992 -2.9079611413180828e-03</internalNodes>
      <leafValues>
        2.5995558500289917e-01 -9.5361687242984772e-02</leafValues></_>
    <_>
      <internalNodes>
        0 -1 52001 1.0591404512524605e-02</internalNodes>
      <leafValues>
        3.6119688302278519e-02 -6.8143779039382935e-01</leafValues></_>
    <_>
      <internalNodes>
        0 -1 56360 -1.2038045097142458e-03</internalNodes>
      <leafValues>
        2.1576431393623352e-01 -1.2855546176433563e-01</leafValues></_>
    <_>
      <internalNodes>
        0 -1 78199 1.3478338951244950e-03</internalNodes>
      <leafValues>
        -1.0856579989194870e-01 2.3155336081981659e-01</leafValues></_>
    <_>
      <internalNodes>
        0 -1 71769 6.4742974936962128e-02</internalNodes>
      <leafValues>
        -4.5128189027309418e-02 5.7799309492111206e-01</leafValues></_>
    <_>
      <internalNodes>
        0 -1 10736 -8.6460245074704289e-04</internalNodes>
      <leafValues>
        2.2705139219760895e-01 -1.0850866883993149e-01</leafValues></_>
    <_>
      <internalNodes>
        0 -1 33229 3.7723388522863388e-03</internalNodes>
      <leafValues>
        -1.0597308725118637e-01 2.3694479465484619e-01</leafValues></_>
    <_>
      <internalNodes>
        0 -1 62128 -1.7018059734255075e-03</internalNodes>
      <leafValues>
        2.1255756914615631e-01 -1.3123725354671478e-01</leafValues></_>
    <_>
      <internalNodes>
        0 -1 69300 -1.1336628347635269e-02</internalNodes>
      <leafValues>
        3.7651917338371277e-01 -6.2564417719841003e-02</leafValues></_>
    <_>
      <internalNodes>
        0 -1 70690 7.0456815883517265e-03</internalNodes>
      <leafValues>
        3.3844627439975739e-02 -7.5174182653427124e-01</leafValues></_>
    <_>
      <internalNodes>
        0 -1 69981 -6.5787427593022585e-04</internalNodes>
      <leafValues>
        1.7428760230541229e-01 -1.4752255380153656e-01</leafValues></_>
    <_>
      <internalNodes>
        0 -1 60278 -2.4808093905448914e-02</internalNodes>
      <leafValues>
        -4.3996715545654297e-01 5.5527396500110626e-02</leafValues></_>
    <_>
      <internalNodes>
        0 -1 62056 4.0306635200977325e-03</internalNodes>
      <leafValues>
        3.4371200948953629e-02 -6.7902219295501709e-01</leafValues></_>
    <_>
      <internalNodes>
        0 -1 67806 -4.0841698646545410e-03</internalNodes>
      <leafValues>
        -7.3066550493240356e-01 3.1730167567729950e-02</leafValues></_>
    <_>
      <internalNodes>
        0 -1 64534 4.7821889165788889e-04</internalNodes>
      <leafValues>
        -1.3357938826084137e-01 2.0012946426868439e-01</leafValues></_>
    <_>
      <internalNodes>
        0 -1 44980 -5.1970938220620155e-03</internalNodes>
      <leafValues>
        2.5801631808280945e-01 -9.1104902327060699e-02</leafValues></_>
    <_>
      <internalNodes>
        0 -1 14028 1.8572814762592316e-02</internalNodes>
      <leafValues>
        3.9906784892082214e-02 -6.5842056274414062e-01</leafValues></_>
    <_>
      <internalNodes>
        0 -1 44011 1.8033367814496160e-04</internalNodes>
      <leafValues>
        1.3771452009677887e-01 -1.8031013011932373e-01</leafValues></_>
    <_>
      <internalNodes>
        0 -1 57393 4.8149554058909416e-03</internalNodes>
      <leafValues>
        3.1937301158905029e-02 -7.3185193538665771e-01</leafValues></_>
    <_>
      <internalNodes>
        0 -1 24506 2.1082013845443726e-03</internalNodes>
      <leafValues>
        -1.0388420522212982e-01 2.3862364888191223e-01</leafValues></_>
    <_>
      <internalNodes>
        0 -1 58507 -7.1764900349080563e-04</internalNodes>
      <leafValues>
        2.0335507392883301e-01 -1.1694315075874329e-01</leafValues></_>
    <_>
      <internalNodes>
        0 -1 71143 -5.3311511874198914e-03</internalNodes>
      <leafValues>
        -6.9187051057815552e-01 3.4873612225055695e-02</leafValues></_>
    <_>
      <internalNodes>
        0 -1 58504 -3.6471169441938400e-03</internalNodes>
      <leafValues>
        -5.7856440544128418e-01 3.7356168031692505e-02</leafValues></_>
    <_>
      <internalNodes>
        0 -1 62261 -1.2357705272734165e-03</internalNodes>
      <leafValues>
        1.9631238281726837e-01 -1.2915067374706268e-01</leafValues></_>
    <_>
      <internalNodes>
        0 -1 49725 -4.1334717534482479e-03</internalNodes>
      <leafValues>
        2.4393419921398163e-01 -1.0171410441398621e-01</leafValues></_>
    <_>
      <internalNodes>
        0 -1 56358 2.5054884608834982e-03</internalNodes>
      <leafValues>
        6.5545074641704559e-02 -4.2732983827590942e-01</leafValues></_>
    <_>
      <internalNodes>
        0 -1 54374 2.5676728691905737e-03</internalNodes>
      <leafValues>
        -1.0148703306913376e-01 2.3615568876266479e-01</leafValues></_>
    <_>
      <internalNodes>
        0 -1 78137 -5.1989872008562088e-04</internalNodes>
      <leafValues>
        2.0647288858890533e-01 -1.1746210604906082e-01</leafValues></_>
    <_>
      <internalNodes>
        0 -1 17275 -2.9899613000452518e-03</internalNodes>
      <leafValues>
        2.4380727112293243e-01 -9.8898135125637054e-02</leafValues></_>
    <_>
      <internalNodes>
        0 -1 45030 5.1917154341936111e-03</internalNodes>
      <leafValues>
        5.3916826844215393e-02 -4.8014634847640991e-01</leafValues></_>
    <_>
      <internalNodes>
        0 -1 22926 6.7631587386131287e-02</internalNodes>
      <leafValues>
        -7.0754311978816986e-02 3.5151937603950500e-01</leafValues></_>
    <_>
      <internalNodes>
        0 -1 77832 -3.5509578883647919e-02</internalNodes>
      <leafValues>
        3.4734916687011719e-01 -6.6505797207355499e-02</leafValues></_>
    <_>
      <internalNodes>
        0 -1 38063 -2.2683348506689072e-02</internalNodes>
      <leafValues>
        -8.2334536314010620e-01 3.1163992360234261e-02</leafValues></_>
    <_>
      <internalNodes>
        0 -1 38273 -1.2800956144928932e-02</internalNodes>
      <leafValues>
        -4.0313589572906494e-01 5.1697626709938049e-02</leafValues></_></weakClassifiers></stage1>
</opencv_storage>
