<?xml version="1.0"?>
<opencv_storage>
<stage2>
  <maxWeakCount>76</maxWeakCount>
  <stageThreshold>-6.6823571920394897e-01</stageThreshold>
  <weakClassifiers>
    <_>
      <internalNodes>
        0 -1 64739 -1.0018580593168736e-02</internalNodes>
      <leafValues>
        -2.3214285075664520e-01 3.8449111580848694e-01</leafValues></_>
    <_>
      <internalNodes>
        0 -1 70304 -1.3126675039529800e-03</internalNodes>
      <leafValues>
        1.7459324002265930e-01 -1.7564885318279266e-01</leafValues></_>
    <_>
      <internalNodes>
        0 -1 39838 7.0070186629891396e-03</internalNodes>
      <leafValues>
        -1.1630069464445114e-01 2.8113201260566711e-01</leafValues></_>
    <_>
      <internalNodes>
        0 -1 12171 -5.9412245173007250e-04</internalNodes>
      <leafValues>
        2.1423378586769104e-01 -1.3051725924015045e-01</leafValues></_>
    <_>
      <internalNodes>
        0 -1 12610 4.6243821270763874e-03</internalNodes>
      <leafValues>
        -1.1789874732494354e-01 2.7708995342254639e-01</leafValues></_>
    <_>
      <internalNodes>
        0 -1 64585 2.5295171886682510e-02</internalNodes>
      <leafValues>
        2.1580455824732780e-02 -6.4494895935058594e-01</leafValues></_>
    <_>
      <internalNodes>
        0 -1 21513 -7.5450758449733257e-03</internalNodes>
      <leafValues>
        3.1624105572700500e-01 -7.8713826835155487e-02</leafValues></_>
    <_>
      <internalNodes>
        0 -1 58443 1.0630748001858592e-03</internalNodes>
      <leafValues>
        -1.1564518511295319e-01 2.3009291291236877e-01</leafValues></_>
    <_>
      <internalNodes>
        0 -1 29293 3.6929711699485779e-02</internalNodes>
      <leafValues>
        -5.0741776823997498e-02 4.3023800849914551e-01</leafValues></_>
    <_>
      <internalNodes>
        0 -1 3055 -6.8006729707121849e-03</internalNodes>
      <leafValues>
        1.7094570398330688e-01 -1.5643675625324249e-01</leafValues></_>
    <_>
      <internalNodes>
        0 -1 55073 -4.4450355926528573e-04</internalNodes>
      <leafValues>
        1.6875368356704712e-01 -1.2850672006607056e-01</leafValues></_>
    <_>
      <internalNodes>
        0 -1 1422 -6.2283169478178024e-02</internalNodes>
      <leafValues>
        3.8130950927734375e-01 -6.2687501311302185e-02</leafValues></_>
    <_>
      <internalNodes>
        0 -1 13613 -1.7212308011949062e-03</internalNodes>
      <leafValues>
        2.3728442192077637e-01 -8.9983895421028137e-02</leafValues></_>
    <_>
      <internalNodes>
        0 -1 45053 -2.4604210630059242e-03</internalNodes>
      <leafValues>
        2.3081259429454803e-01 -1.0176992416381836e-01</leafValues></_>
    <_>
      <internalNodes>
        0 -1 58557 4.5166155323386192e-03</internalNodes>
      <leafValues>
        4.9548659473657608e-02 -4.5123857259750366e-01</leafValues></_>
    <_>
      <internalNodes>
        0 -1 49838 -5.2992552518844604e-03</internalNodes>
      <leafValues>
        1.9442780315876007e-01 -1.1472488194704056e-01</leafValues></_>
    <_>
      <internalNodes>
        0 -1 33823 -1.7438284121453762e-03</internalNodes>
      <leafValues>
        2.0440101623535156e-01 -1.2765432894229889e-01</leafValues></_>
    <_>
      <internalNodes>
        0 -1 57006 -1.7018776386976242e-02</internalNodes>
      <leafValues>
        -2.6263916492462158e-01 8.0869965255260468e-02</leafValues></_>
    <_>
      <internalNodes>
        0 -1 60543 1.4354022219777107e-02</internalNodes>
      <leafValues>
        4.2743775993585587e-02 -4.4800502061843872e-01</leafValues></_>
    <_>
      <internalNodes>
        0 -1 64410 1.5051099471747875e-03</internalNodes>
      <leafValues>
        -1.1693296581506729e-01 2.0829088985919952e-01</leafValues></_>
    <_>
      <internalNodes>
        0 -1 64900 1.9956582691520452e-03</internalNodes>
      <leafValues>
        -7.1529552340507507e-02 2.9008299112319946e-01</leafValues></_>
    <_>
      <internalNodes>
        0 -1 64900 -1.1349342530593276e-03</internalNodes>
      <leafValues>
        2.2914302349090576e-01 -1.1984447389841080e-01</leafValues></_>
    <_>
      <internalNodes>
        0 -1 78195 3.3391485339961946e-04</internalNodes>
      <leafValues>
        -1.1818041652441025e-01 1.6662333905696869e-01</leafValues></_>
    <_>
      <internalNodes>
        0 -1 75020 5.0291541265323758e-04</internalNodes>
      <leafValues>
        -1.0575837641954422e-01 1.8676349520683289e-01</leafValues></_>
    <_>
      <internalNodes>
        0 -1 70605 6.7667057737708092e-03</internalNodes>
      <leafValues>
        -7.1639768779277802e-02 2.7265229821205139e-01</leafValues></_>
    <_>
      <internalNodes>
        0 -1 62897 -4.4296547770500183e-02</internalNodes>
      <leafValues>
        2.8819406032562256e-01 -8.2373201847076416e-02</leafValues></_>
    <_>
      <internalNodes>
        0 -1 45624 -1.8891145009547472e-03</internalNodes>
      <leafValues>
        2.2568733990192413e-01 -8.1227354705333710e-02</leafValues></_>
    <_>
      <internalNodes>
        0 -1 42635 -1.3659344986081123e-02</internalNodes>
      <leafValues>
        -6.2084257602691650e-01 2.9855359345674515e-02</leafValues></_>
    <_>
      <internalNodes>
        0 -1 57952 -1.1794148012995720e-03</internalNodes>
      <leafValues>
        2.4478855729103088e-01 -8.0298766493797302e-02</leafValues></_>
    <_>
      <internalNodes>
        0 -1 51308 4.7701470553874969e-02</internalNodes>
      <leafValues>
        3.1670358031988144e-02 -7.6158618927001953e-01</leafValues></_>
    <_>
      <internalNodes>
        0 -1 70194 1.9918650388717651e-02</internalNodes>
      <leafValues>
        -6.6109769046306610e-02 3.2852551341056824e-01</leafValues></_>
    <_>
      <internalNodes>
        0 -1 64728 -2.2421358153223991e-03</internalNodes>
      <leafValues>
        -4.3767267465591431e-01 4.9516331404447556e-02</leafValues></_>
    <_>
      <internalNodes>
        0 -1 138 1.8234580755233765e-02</internalNodes>
      <leafValues>
        -3.6311779171228409e-02 5.7559835910797119e-01</leafValues></_>
    <_>
      <internalNodes>
        0 -1 33934 -6.1184642836451530e-03</internalNodes>
      <leafValues>
        -5.5437332391738892e-01 3.8484930992126465e-02</leafValues></_>
    <_>
      <internalNodes>
        0 -1 33804 1.0171839967370033e-03</internalNodes>
      <leafValues>
        -8.7016843259334564e-02 2.2078441083431244e-01</leafValues></_>
    <_>
      <internalNodes>
        0 -1 39159 1.1886230204254389e-03</internalNodes>
      <leafValues>
        -1.1311972886323929e-01 1.8159447610378265e-01</leafValues></_>
    <_>
      <internalNodes>
        0 -1 75157 -2.6955215726047754e-03</internalNodes>
      <leafValues>
        -4.0359646081924438e-01 4.7320462763309479e-02</leafValues></_>
    <_>
      <internalNodes>
        0 -1 75106 8.5620098980143666e-04</internalNodes>
      <leafValues>
        -1.0660058259963989e-01 2.2159127891063690e-01</leafValues></_>
    <_>
      <internalNodes>
        0 -1 52933 -9.4965985044836998e-04</internalNodes>
      <leafValues>
        1.9170445203781128e-01 -9.7149856388568878e-02</leafValues></_>
    <_>
      <internalNodes>
        0 -1 52931 3.4655383205972612e-04</internalNodes>
      <leafValues>
        -1.1668702214956284e-01 1.7488408088684082e-01</leafValues></_>
    <_>
      <internalNodes>
        0 -1 15442 -5.0234371423721313e-01</internalNodes>
      <leafValues>
        5.8986186981201172e-01 -3.5544872283935547e-02</leafValues></_>
    <_>
      <internalNodes>
        0 -1 51035 -4.3751433491706848e-02</internalNodes>
      <leafValues>
        -4.5674023032188416e-01 4.8362951725721359e-02</leafValues></_>
    <_>
      <internalNodes>
        0 -1 65201 -9.1894739307463169e-04</internalNodes>
      <leafValues>
        2.0033077895641327e-01 -9.9624410271644592e-02</leafValues></_>
    <_>
      <internalNodes>
        0 -1 65332 8.5184839554131031e-04</internalNodes>
      <leafValues>
        -1.2737815082073212e-01 2.0814567804336548e-01</leafValues></_>
    <_>
      <internalNodes>
        0 -1 53265 -6.4759485423564911e-02</internalNodes>
      <leafValues>
        -8.1688958406448364e-01 2.9710272327065468e-02</leafValues></_>
    <_>
      <internalNodes>
        0 -1 7912 1.6619090735912323e-01</internalNodes>
      <leafValues>
        -4.3690774589776993e-02 5.9845441579818726e-01</leafValues></_>
    <_>
      <internalNodes>
        0 -1 3330 -2.7612345293164253e-03</internalNodes>
      <leafValues>
        2.5656887888908386e-01 -7.9723685979843140e-02</leafValues></_>
    <_>
      <internalNodes>
        0 -1 67813 -5.2588894031941891e-03</internalNodes>
      <leafValues>
        -4.1628813743591309e-01 5.2826821804046631e-02</leafValues></_>
    <_>
      <internalNodes>
        0 -1 44290 1.0311477817595005e-03</internalNodes>
      <leafValues>
        -8.0541320145130157e-02 2.5887179374694824e-01</leafValues></_>
    <_>
      <internalNodes>
        0 -1 61633 1.1577641591429710e-02</internalNodes>
      <leafValues>
        3.8666982203722000e-02 -6.2442135810852051e-01</leafValues></_>
    <_>
      <internalNodes>
        0 -1 30355 5.3654529619961977e-04</internalNodes>
      <leafValues>
        -1.2662929296493530e-01 1.5298269689083099e-01</leafValues></_>
    <_>
      <internalNodes>
        0 -1 36324 -1.6983950044959784e-03</internalNodes>
      <leafValues>
        1.9929224252700806e-01 -1.0543622821569443e-01</leafValues></_>
    <_>
      <internalNodes>
        0 -1 3023 1.9739490747451782e-01</internalNodes>
      <leafValues>
        -2.5771992281079292e-02 7.1811252832412720e-01</leafValues></_>
    <_>
      <internalNodes>
        0 -1 19630 -6.2518101185560226e-03</internalNodes>
      <leafValues>
        -7.4934327602386475e-01 3.0165174975991249e-02</leafValues></_>
    <_>
      <internalNodes>
        0 -1 75251 9.7605341579765081e-04</internalNodes>
      <leafValues>
        -1.2661895155906677e-01 1.4030061662197113e-01</leafValues></_>
    <_>
      <internalNodes>
        0 -1 19985 4.3888660147786140e-03</internalNodes>
      <leafValues>
        3.0576765537261963e-02 -6.3830327987670898e-01</leafValues></_>
    <_>
      <internalNodes>
        0 -1 66955 -2.3196075111627579e-02</internalNodes>
      <leafValues>
        -2.8375557065010071e-01 6.3464842736721039e-02</leafValues></_>
    <_>
      <internalNodes>
        0 -1 69973 -7.3384342249482870e-04</internalNodes>
      <leafValues>
        2.3877291381359100e-01 -1.0254088044166565e-01</leafValues></_>
    <_>
      <internalNodes>
        0 -1 77716 -6.6065847873687744e-02</internalNodes>
      <leafValues>
        5.2852135896682739e-01 -3.6701235920190811e-02</leafValues></_>
    <_>
      <internalNodes>
        0 -1 67814 2.2938861511647701e-03</internalNodes>
      <leafValues>
        -8.4999419748783112e-02 2.2005149722099304e-01</leafValues></_>
    <_>
      <internalNodes>
        0 -1 67957 -1.0710348142310977e-03</internalNodes>
      <leafValues>
        2.2270101308822632e-01 -9.7915351390838623e-02</leafValues></_>
    <_>
      <internalNodes>
        0 -1 58555 -3.9707943797111511e-03</internalNodes>
      <leafValues>
        -5.9696668386459351e-01 3.3600538969039917e-02</leafValues></_>
    <_>
      <internalNodes>
        0 -1 43036 4.4881463050842285e-02</internalNodes>
      <leafValues>
        3.2270286232233047e-02 -4.9995088577270508e-01</leafValues></_>
    <_>
      <internalNodes>
        0 -1 63867 5.9824157506227493e-03</internalNodes>
      <leafValues>
        -6.9461733102798462e-02 3.0682727694511414e-01</leafValues></_>
    <_>
      <internalNodes>
        0 -1 34154 -5.7611810043454170e-03</internalNodes>
      <leafValues>
        2.7693864703178406e-01 -6.8327359855175018e-02</leafValues></_>
    <_>
      <internalNodes>
        0 -1 56356 -6.6689630039036274e-03</internalNodes>
      <leafValues>
        -6.2857538461685181e-01 3.1390875577926636e-02</leafValues></_>
    <_>
      <internalNodes>
        0 -1 65297 -1.1925522238016129e-02</internalNodes>
      <leafValues>
        -6.1103355884552002e-01 2.6280656456947327e-02</leafValues></_>
    <_>
      <internalNodes>
        0 -1 76472 6.2561407685279846e-04</internalNodes>
      <leafValues>
        -1.0297656804323196e-01 1.9322562217712402e-01</leafValues></_>
    <_>
      <internalNodes>
        0 -1 69600 1.1257319711148739e-03</internalNodes>
      <leafValues>
        -8.4216110408306122e-02 2.1921838819980621e-01</leafValues></_>
    <_>
      <internalNodes>
        0 -1 69471 -2.0170012488961220e-02</internalNodes>
      <leafValues>
        3.3126568794250488e-01 -6.0311388224363327e-02</leafValues></_>
    <_>
      <internalNodes>
        0 -1 68107 -1.2956326827406883e-03</internalNodes>
      <leafValues>
        1.7251875996589661e-01 -1.0908616334199905e-01</leafValues></_>
    <_>
      <internalNodes>
        0 -1 13903 4.0857945568859577e-03</internalNodes>
      <leafValues>
        5.7899821549654007e-02 -3.2828310132026672e-01</leafValues></_>
    <_>
      <internalNodes>
        0 -1 62119 -3.0902257189154625e-02</internalNodes>
      <leafValues>
        6.6981452703475952e-01 -2.8751002624630928e-02</leafValues></_>
    <_>
      <internalNodes>
        0 -1 65667 2.9290865641087294e-03</internalNodes>
      <leafValues>
        5.7782396674156189e-02 -3.5190078616142273e-01</leafValues></_>
    <_>
      <internalNodes>
        0 -1 57282 -3.0879754573106766e-02</internalNodes>
      <leafValues>
        -4.5426073670387268e-01 4.1598308831453323e-02</leafValues></_>
    <_>
      <internalNodes>
        0 -1 60247 1.4251170679926872e-02</internalNodes>
      <leafValues>
        -1.2953813374042511e-01 1.6669687628746033e-01</leafValues></_></weakClassifiers></stage2>
</opencv_storage>
