<?xml version="1.0"?>
<opencv_storage>
<stage0>
  <maxWeakCount>31</maxWeakCount>
  <stageThreshold>-9.3297541141510010e-01</stageThreshold>
  <weakClassifiers>
    <_>
      <internalNodes>
        0 -1 70447 -1.3098603812977672e-03</internalNodes>
      <leafValues>
        5.9062498807907104e-01 1.0140845179557800e-01</leafValues></_>
    <_>
      <internalNodes>
        0 -1 54599 2.6536490768194199e-03</internalNodes>
      <leafValues>
        -1.5736046433448792e-01 4.4445332884788513e-01</leafValues></_>
    <_>
      <internalNodes>
        0 -1 71636 -4.5719626359641552e-04</internalNodes>
      <leafValues>
        3.7329089641571045e-01 -1.7175766825675964e-01</leafValues></_>
    <_>
      <internalNodes>
        0 -1 12180 6.4976897556334734e-04</internalNodes>
      <leafValues>
        -2.4017722904682159e-01 2.5465363264083862e-01</leafValues></_>
    <_>
      <internalNodes>
        0 -1 75041 2.6516634970903397e-03</internalNodes>
      <leafValues>
        -1.4639621973037720e-01 4.1096824407577515e-01</leafValues></_>
    <_>
      <internalNodes>
        0 -1 63599 5.2220805082470179e-04</internalNodes>
      <leafValues>
        -1.6784043610095978e-01 3.1872811913490295e-01</leafValues></_>
    <_>
      <internalNodes>
        0 -1 21344 -3.5777748562395573e-03</internalNodes>
      <leafValues>
        4.4671231508255005e-01 -1.3353359699249268e-01</leafValues></_>
    <_>
      <internalNodes>
        0 -1 49013 1.2799449032172561e-03</internalNodes>
      <leafValues>
        -1.5816368162631989e-01 3.1953084468841553e-01</leafValues></_>
    <_>
      <internalNodes>
        0 -1 65067 -1.4627622440457344e-03</internalNodes>
      <leafValues>
        2.8677976131439209e-01 -1.7892017960548401e-01</leafValues></_>
    <_>
      <internalNodes>
        0 -1 70445 5.2962329937145114e-04</internalNodes>
      <leafValues>
        -1.6280338168144226e-01 2.8833857178688049e-01</leafValues></_>
    <_>
      <internalNodes>
        0 -1 18360 -6.3772965222597122e-04</internalNodes>
      <leafValues>
        2.8176462650299072e-01 -1.4698852598667145e-01</leafValues></_>
    <_>
      <internalNodes>
        0 -1 24555 -4.6639856882393360e-03</internalNodes>
      <leafValues>
        3.8078269362449646e-01 -9.9470295011997223e-02</leafValues></_>
    <_>
      <internalNodes>
        0 -1 49526 6.6869123838841915e-04</internalNodes>
      <leafValues>
        -1.6277602314949036e-01 2.5326979160308838e-01</leafValues></_>
    <_>
      <internalNodes>
        0 -1 12967 -1.6451566480100155e-03</internalNodes>
      <leafValues>
        3.1706690788269043e-01 -1.3376045227050781e-01</leafValues></_>
    <_>
      <internalNodes>
        0 -1 69077 3.8969852030277252e-03</internalNodes>
      <leafValues>
        -1.1120133101940155e-01 3.4440213441848755e-01</leafValues></_>
    <_>
      <internalNodes>
        0 -1 28570 -1.1576315388083458e-02</internalNodes>
      <leafValues>
        3.0854919552803040e-01 -1.3869790732860565e-01</leafValues></_>
    <_>
      <internalNodes>
        0 -1 52731 -2.1228238474577665e-03</internalNodes>
      <leafValues>
        2.6724854111671448e-01 -1.4767958223819733e-01</leafValues></_>
    <_>
      <internalNodes>
        0 -1 72818 -2.6431586593389511e-04</internalNodes>
      <leafValues>
        2.3677264153957367e-01 -1.7338548600673676e-01</leafValues></_>
    <_>
      <internalNodes>
        0 -1 57624 4.1605217847973108e-04</internalNodes>
      <leafValues>
        -1.5458050370216370e-01 2.4640361964702606e-01</leafValues></_>
    <_>
      <internalNodes>
        0 -1 72220 9.7380724037066102e-04</internalNodes>
      <leafValues>
        -1.2841551005840302e-01 2.5455740094184875e-01</leafValues></_>
    <_>
      <internalNodes>
        0 -1 69978 1.3540827203541994e-03</internalNodes>
      <leafValues>
        -1.5539616346359253e-01 2.3102197051048279e-01</leafValues></_>
    <_>
      <internalNodes>
        0 -1 21107 -7.4736145325005054e-04</internalNodes>
      <leafValues>
        2.7646014094352722e-01 -1.3229568302631378e-01</leafValues></_>
    <_>
      <internalNodes>
        0 -1 72859 2.3266142234206200e-03</internalNodes>
      <leafValues>
        -1.4920952916145325e-01 2.3470309376716614e-01</leafValues></_>
    <_>
      <internalNodes>
        0 -1 34811 5.3601223044097424e-03</internalNodes>
      <leafValues>
        -8.7382383644580841e-02 3.9915567636489868e-01</leafValues></_>
    <_>
      <internalNodes>
        0 -1 65686 9.4733256846666336e-03</internalNodes>
      <leafValues>
        -5.1142025738954544e-02 6.7104887962341309e-01</leafValues></_>
    <_>
      <internalNodes>
        0 -1 60682 6.5851792693138123e-02</internalNodes>
      <leafValues>
        6.4357042312622070e-02 -6.1292099952697754e-01</leafValues></_>
    <_>
      <internalNodes>
        0 -1 67685 -1.9436642760410905e-03</internalNodes>
      <leafValues>
        1.9049403071403503e-01 -1.9600503146648407e-01</leafValues></_>
    <_>
      <internalNodes>
        0 -1 64126 2.2571934387087822e-02</internalNodes>
      <leafValues>
        5.0926383584737778e-02 -8.1148004531860352e-01</leafValues></_>
    <_>
      <internalNodes>
        0 -1 73503 -4.5847529545426369e-03</internalNodes>
      <leafValues>
        -5.4775369167327881e-01 5.3947247564792633e-02</leafValues></_>
    <_>
      <internalNodes>
        0 -1 73444 1.9905935041606426e-03</internalNodes>
      <leafValues>
        -1.1827504634857178e-01 2.9678061604499817e-01</leafValues></_>
    <_>
      <internalNodes>
        0 -1 22382 2.4947558995336294e-03</internalNodes>
      <leafValues>
        -1.1801040172576904e-01 2.7646073698997498e-01</leafValues></_></weakClassifiers></stage0>
</opencv_storage>
